{
  "features_info":
    {
      "float_features":
        [
          {
            "borders":
              [
                2050,
                2250,
                3150,
                4050,
                4150
              ],
            "feature_id":"8656483_tide_stage",
            "feature_index":0,
            "flat_feature_index":0,
            "has_nans":false,
            "nan_value_treatment":"AsIs"
          },
          {
            "borders":
              [
                0.014085033908486366,
                0.018105257302522659,
                0.054431047290563583,
                0.073020428419113159,
                0.075901135802268982,
                0.1218532994389534,
                0.1521875262260437,
                0.15516456961631775,
                0.21970589458942413,
                0.37222546339035034,
                0.49410107731819153,
                0.5317845344543457,
                0.54059743881225586,
                0.54733753204345703,
                0.55062365531921387,
                0.63909327983856201,
                0.65400534868240356,
                0.66620522737503052,
                0.72446942329406738,
                0.81502985954284668,
                0.95908135175704956,
                1.0353662967681885,
                1.0519412755966187,
                1.1432236433029175,
                1.1559414863586426,
                1.1807510852813721,
                1.2640968561172485,
                1.5047845840454102,
                1.8425865173339844,
                2.4176182746887207,
                2.8580529689788818,
                3.4931573867797852
              ],
            "feature_id":"RadioIsland_nexrad_total_1_day_delay",
            "feature_index":1,
            "flat_feature_index":1,
            "has_nans":false,
            "nan_value_treatment":"AsIs"
          },
          {
            "borders":
              [
                7.1463441599917132e-06,
                2.1439032934722491e-05,
                3.5731722164200619e-05,
                6.4317100623156875e-05,
                0.0001143414992839098,
                0.00019592350872699171,
                0.00026024060207419097,
                0.00030014646472409368,
                0.00047880504280328751,
                0.013508403673768044,
                0.013757568784058094,
                0.015725666657090187,
                0.036184042692184448,
                0.15888392925262451,
                0.16490153968334198,
                0.22910791635513306,
                0.23376026749610901,
                0.24198643863201141,
                0.24643559753894806,
                0.52634644508361816,
                0.58318412303924561,
                0.81793755292892456,
                0.86158919334411621,
                1.0018374919891357,
                1.1936948299407959,
                1.2836847305297852,
                1.4882204532623291,
                1.8382503986358643,
                2.0880446434020996,
                2.2340540885925293,
                2.4069643020629883,
                2.4874193668365479,
                2.7655363082885742,
                3.6838569641113281,
                4.3539266586303711,
                4.7575116157531738
              ],
            "feature_id":"RadioIsland_nexrad_total_2_day_delay",
            "feature_index":2,
            "flat_feature_index":2,
            "has_nans":false,
            "nan_value_treatment":"AsIs"
          },
          {
            "borders":
              [
                7.1463441599917132e-06,
                2.1439032934722491e-05,
                8.6683117842767388e-05,
                0.00018673193699214607,
                0.00023165522725321352,
                0.00086312321946024895,
                0.0010417818557471037,
                0.0041114212945103645,
                0.008791336789727211,
                0.01023971289396286,
                0.013369113206863403,
                0.013959389179944992,
                0.0142472879961133,
                0.015414156951010227,
                0.01738039031624794,
                0.017850851640105247,
                0.018995745107531548,
                0.020167771726846695,
                0.02442801371216774,
                0.029204338788986206,
                0.032171405851840973,
                0.033911429345607758,
                0.034697413444519043,
                0.036547139286994934,
                0.039609111845493317,
                0.042456068098545074,
                0.046282030642032623,
                0.049423143267631531,
                0.052483059465885162,
                0.056596472859382629,
                0.062712252140045166,
                0.075334638357162476,
                0.087595611810684204,
                0.093574255704879761,
                0.095029614865779877,
                0.0970354825258255,
                0.10450996458530426,
                0.1221795529127121,
                0.12371370196342468,
                0.12882128357887268,
                0.14431780576705933,
                0.14875590801239014,
                0.1491488516330719,
                0.15133273601531982,
                0.1982576847076416,
                0.20882758498191833,
                0.21128636598587036,
                0.21378791332244873,
                0.21628907322883606,
                0.21758411824703217,
                0.27497872710227966,
                0.28550046682357788,
                0.29637253284454346,
                0.37108629941940308,
                0.46766254305839539,
                0.52250492572784424,
                0.53300118446350098,
                0.5422513484954834,
                0.54660546779632568,
                0.55850660800933838,
                0.57828104496002197,
                0.60329735279083252,
                0.82543891668319702,
                1.0911250114440918,
                1.1495720148086548,
                1.1784296035766602,
                1.2101625204086304,
                1.3075913190841675,
                2.833543062210083,
                3.8411304950714111
              ],
            "feature_id":"RadioIsland_nexrad_total_3_day_delay",
            "feature_index":3,
            "flat_feature_index":3,
            "has_nans":false,
            "nan_value_treatment":"AsIs"
          },
          {
            "borders":
              [
                3.5,
                4.5,
                5.5,
                6.5,
                7.5,
                9,
                11,
                13
              ],
            "feature_id":"RadioIsland_nexrad_dry_days_count",
            "feature_index":4,
            "flat_feature_index":4,
            "has_nans":false,
            "nan_value_treatment":"AsIs"
          },
          {
            "borders":
              [
                0.0034480155445635319,
                0.011551125906407833,
                0.017973218113183975,
                0.021551933139562607,
                0.031007219105958939,
                0.033876024186611176,
                0.035639382898807526,
                0.036699086427688599,
                0.037001200020313263,
                0.045649878680706024,
                0.04871680960059166,
                0.062781110405921936,
                0.066683948040008545,
                0.071431353688240051,
                0.075712546706199646,
                0.078320920467376709,
                0.079315431416034698,
                0.080255627632141113,
                0.083021387457847595,
                0.087876811623573303,
                0.092579573392868042,
                0.093722261488437653,
                0.096417725086212158,
                0.11038723587989807,
                0.12615387141704559,
                0.13800230622291565,
                0.16977904736995697
              ],
            "feature_id":"RadioIsland_nexrad_rainfall_intensity",
            "feature_index":5,
            "flat_feature_index":5,
            "has_nans":false,
            "nan_value_treatment":"AsIs"
          },
          {
            "borders":
              [
                0.0039090830832719803,
                0.004590766504406929,
                0.0065039247274398804,
                0.0070640305057168007,
                0.0092268502339720726,
                0.011386405676603317,
                0.013632073998451233,
                0.014391196891665459,
                0.017432305961847305,
                0.04553641751408577,
                0.046841029077768326,
                0.057242315262556076,
                0.11497750878334045,
                0.11842145025730133,
                0.1450226902961731,
                0.20852765440940857,
                0.2119891494512558,
                0.22904118895530701,
                0.28587478399276733,
                0.29631376266479492,
                0.52773606777191162,
                0.55645751953125,
                0.98899823427200317,
                1.0402070283889771,
                1.2005367279052734,
                1.2798166275024414,
                1.998875617980957,
                2.1535992622375488,
                2.2238848209381104,
                2.2341780662536621,
                2.2633767127990723,
                2.5793311595916748,
                2.9800143241882324
              ],
            "feature_id":"RadioIsland_nexrad_summary_24",
            "feature_index":6,
            "flat_feature_index":6,
            "has_nans":false,
            "nan_value_treatment":"AsIs"
          },
          {
            "borders":
              [
                0.0029006400145590305,
                0.0053807040676474571,
                0.090713381767272949,
                0.2124260812997818,
                0.21922865509986877,
                0.22224944829940796,
                0.29222559928894043,
                0.31667989492416382,
                0.55007123947143555,
                0.9042435884475708,
                1.0925469398498535,
                1.8057386875152588,
                1.8481729030609131,
                1.9027667045593262,
                1.9855854511260986,
                2.3278491497039795,
                2.470841646194458,
                2.5134639739990234,
                2.5659117698669434,
                2.7521145343780518,
                3.0475332736968994,
                3.463836669921875
              ],
            "feature_id":"RadioIsland_nexrad_summary_48",
            "feature_index":7,
            "flat_feature_index":7,
            "has_nans":false,
            "nan_value_treatment":"AsIs"
          },
          {
            "borders":
              [
                7.1463441599917132e-06,
                2.1439032934722491e-05,
                0.020238200202584267,
                0.035501468926668167,
                0.22613134980201721,
                0.28972107172012329,
                0.54857975244522095,
                0.82411414384841919,
                0.84388500452041626,
                0.98755675554275513,
                2.4409785270690918,
                2.8198823928833008,
                2.9810028076171875,
                3.1536436080932617,
                3.2058782577514648,
                3.7592005729675293,
                4.6325788497924805,
                5.4692754745483398
              ],
            "feature_id":"RadioIsland_nexrad_summary_72",
            "feature_index":8,
            "flat_feature_index":8,
            "has_nans":false,
            "nan_value_treatment":"AsIs"
          },
          {
            "borders":
              [
                7.1463441599917132e-06,
                5.0024409574689344e-05,
                0.00028585374820977449,
                0.00063602463342249393,
                0.024375516921281815,
                0.039609111845493317,
                0.05158078670501709,
                0.063891731202602386,
                0.11208050698041916,
                0.12222957611083984,
                0.13659924268722534,
                0.14410015940666199,
                0.1491488516330719,
                0.15515157580375671,
                0.22513264417648315,
                0.22810792922973633,
                0.23041854798793793,
                0.2613823413848877,
                0.30905073881149292,
                0.33258140087127686,
                0.36403024196624756,
                0.41446232795715332,
                0.55241096019744873,
                0.83173614740371704,
                0.87581408023834229,
                1.0560173988342285,
                1.4790713787078857,
                1.5980477333068848,
                2.7160940170288086,
                3.3886322975158691,
                3.4543583393096924,
                4.0366482734680176,
                4.4062185287475586,
                5.7713980674743652
              ],
            "feature_id":"RadioIsland_nexrad_summary_96",
            "feature_index":9,
            "flat_feature_index":9,
            "has_nans":false,
            "nan_value_treatment":"AsIs"
          },
          {
            "borders":
              [
                0.0011362687218934298,
                0.07872394472360611,
                0.11325575411319733,
                0.12163911014795303,
                0.14674749970436096,
                0.1754850447177887,
                0.20241943001747131,
                0.22513264417648315,
                0.22819474339485168,
                0.24361094832420349,
                0.25985985994338989,
                0.27534329891204834,
                0.30905073881149292,
                0.32350900769233704,
                0.3351864218711853,
                0.35784512758255005,
                0.36593872308731079,
                0.49357995390892029,
                0.62770652770996094,
                0.86046183109283447,
                0.89703613519668579,
                2.0938243865966797,
                4.3828763961791992,
                4.9192028045654297,
                5.2222509384155273,
                5.7713980674743652
              ],
            "feature_id":"RadioIsland_nexrad_summary_120",
            "feature_index":10,
            "flat_feature_index":10,
            "has_nans":false,
            "nan_value_treatment":"AsIs"
          },
          {
            "borders":
              [
                0.00013578053039964288,
                0.0014221224701032043,
                0.0025347103364765644,
                0.010956039652228355,
                0.01233380101621151,
                0.014407487586140633,
                0.016482431441545486,
                0.022769538685679436,
                0.030748821794986725,
                0.046877969056367874,
                0.083112269639968872,
                0.19364187121391296,
                0.3351864218711853,
                0.34934860467910767,
                0.35965639352798462,
                0.3720988929271698,
                0.3803788423538208,
                0.40256151556968689,
                0.40917140245437622,
                0.47725510597229004,
                0.51702111959457397,
                0.56295180320739746,
                0.56471085548400879,
                0.6614450216293335,
                0.70829689502716064,
                0.76801049709320068,
                1.1395409107208252,
                1.5995440483093262,
                1.8640389442443848,
                1.9728131294250488,
                2.0971808433532715,
                2.2837183475494385,
                2.384760856628418,
                2.4412693977355957,
                3.2570505142211914,
                3.5300920009613037,
                4.293797492980957,
                4.5236020088195801,
                4.9544963836669922,
                6.3746919631958008
              ],
            "feature_id":"RadioIsland_nexrad_summary_144",
            "feature_index":11,
            "flat_feature_index":11,
            "has_nans":false,
            "nan_value_treatment":"AsIs"
          },
          {
            "borders":
              [
                0.00030729279387742281,
                0.0059707285836338997,
                0.01233380101621151,
                0.014414633624255657,
                0.017562691122293472,
                0.1818920224905014,
                0.19837701320648193,
                0.28086769580841064,
                0.32029363512992859,
                0.34332507848739624,
                0.37801918387413025,
                0.38187891244888306,
                0.39210563898086548,
                0.41571569442749023,
                0.45056158304214478,
                0.48771744966506958,
                0.5516970157623291,
                0.73206233978271484,
                0.83489751815795898,
                0.85589069128036499,
                0.88251698017120361,
                0.94269108772277832,
                0.95729410648345947,
                1.1493960618972778,
                1.3275845050811768,
                1.4285476207733154,
                1.469353199005127,
                1.7839680910110474,
                1.8366711139678955,
                1.9122151136398315,
                1.992082953453064,
                2.1460680961608887,
                2.1912388801574707,
                2.2537016868591309,
                2.2815203666687012,
                2.2904224395751953,
                2.3534002304077148,
                2.3965778350830078,
                2.4320287704467773,
                2.5582332611083984,
                2.5652046203613281,
                2.5829896926879883,
                2.6666855812072754,
                2.6951498985290527,
                2.7232756614685059,
                2.8038003444671631,
                2.9614078998565674,
                3.1578822135925293,
                4.666633129119873,
                5.2616872787475586,
                5.7927761077880859,
                6.833221435546875
              ],
            "feature_id":"RadioIsland_nexrad_summary_168",
            "feature_index":12,
            "flat_feature_index":12,
            "has_nans":false,
            "nan_value_treatment":"AsIs"
          },
          {
            "borders":
              [
                2.1439032934722491e-05,
                0.00030729279387742281,
                0.003338151378557086,
                0.0074553154408931732,
                0.014639519155025482,
                0.14599193632602692,
                0.20414996147155762,
                0.21732473373413086,
                0.24177922308444977,
                0.65569114685058594,
                0.73164224624633789,
                1.3440520763397217,
                1.8227814435958862,
                1.8726327419281006,
                2.2738776206970215,
                2.4320287704467773,
                2.4447031021118164,
                2.5704827308654785,
                2.6121654510498047,
                2.7528061866760254,
                2.7668070793151855,
                2.8075129985809326,
                2.8925361633300781,
                3.140519380569458,
                3.1769676208496094,
                3.8350539207458496,
                5.4598665237426758,
                6.2917928695678711,
                6.9037818908691406,
                7.4576640129089355
              ],
            "feature_id":"RadioIsland_nexrad_summary_192",
            "feature_index":13,
            "flat_feature_index":13,
            "has_nans":false,
            "nan_value_treatment":"AsIs"
          },
          {
            "borders":
              [
                -5.0040149688720703,
                -4.730712890625,
                -4.2572050094604492,
                -4.1482400894165039,
                -4.017331600189209,
                -3.9802241325378418,
                -3.8989946842193604,
                -3.6970858573913574,
                -3.3874473571777344,
                -3.3497323989868164,
                -3.2501018047332764,
                -3.1524991989135742,
                -3.1047120094299316,
                -3.0573334693908691,
                -2.856712818145752,
                -2.8198137283325195,
                -2.3675146102905273,
                -2.3386270999908447,
                -2.2788681983947754,
                -2.2052450180053711,
                -2.1237943172454834,
                -2.1040480136871338,
                -2.0743470191955566,
                -1.9303579330444336,
                -1.8868141174316406,
                -1.8660553693771362,
                -1.7170438766479492,
                -1.6627848148345947,
                -1.3958699703216553,
                -0.83567816019058228,
                -0.80594074726104736,
                -0.53588831424713135,
                -0.41327747702598572,
                0.37685400247573853,
                2.0371637344360352,
                2.1918349266052246,
                2.6398496627807617,
                2.7007179260253906,
                2.7555012702941895,
                2.8760542869567871,
                2.9341788291931152,
                3.0058045387268066,
                3.1111695766448975,
                3.1734201908111572,
                3.2095344066619873,
                3.9888312816619873,
                4.1676030158996582,
                4.4821920394897461,
                4.6878628730773926,
                5.9327859878540039,
                6.6351509094238281,
                7.9558496475219727
              ],
            "feature_id":"8656483_wind_v_24",
            "feature_index":14,
            "flat_feature_index":14,
            "has_nans":true,
            "nan_value_treatment":"AsFalse"
          },
          {
            "borders":
              [
                -3.0775566101074219,
                -2.7271203994750977,
                -2.5868301391601563,
                -2.4950320720672607,
                -2.2851767539978027,
                -2.2636632919311523,
                -2.1919288635253906,
                -2.1727604866027832,
                -2.1554441452026367,
                -2.1169228553771973,
                -2.0398578643798828,
                -2.0210750102996826,
                -1.7305383682250977,
                -1.0480343103408813,
                -0.96499395370483398,
                -0.94747567176818848,
                -0.92248278856277466,
                -0.86234736442565918,
                -0.84955519437789917,
                -0.83077913522720337,
                -0.78731817007064819,
                -0.71071314811706543,
                -0.68674671649932861,
                -0.66058564186096191,
                -0.63585847616195679,
                -0.59248512983322144,
                -0.5730212926864624,
                -0.55278927087783813,
                -0.48044911026954651,
                -0.41500267386436462,
                -0.28631925582885742,
                -0.23475189507007599,
                -0.1414935439825058,
                0.067543312907218933,
                0.10327893495559692,
                0.15570327639579773,
                0.17530497908592224,
                0.35760360956192017,
                0.50196719169616699,
                1.4757779836654663,
                1.6187295913696289,
                1.8215785026550293,
                1.8947615623474121,
                1.9535324573516846,
                2.0276343822479248,
                2.3759229183197021,
                2.4871044158935547,
                2.7032654285430908,
                2.9612703323364258,
                3.0747325420379639,
                3.5499544143676758,
                3.8649845123291016,
                4.219357967376709
              ],
            "feature_id":"8656483_wind_u_24",
            "feature_index":15,
            "flat_feature_index":15,
            "has_nans":true,
            "nan_value_treatment":"AsFalse"
          },
          {
            "borders":
              [
                1006.843994140625,
                1012.40087890625,
                1012.6743774414063,
                1013.2572021484375,
                1013.3547973632813,
                1013.5145874023438,
                1013.5799560546875,
                1013.842041015625,
                1013.9766845703125,
                1014.117919921875,
                1014.3148803710938,
                1014.518310546875,
                1015.4295654296875,
                1015.4560546875,
                1015.81494140625,
                1015.9824829101563,
                1016.0975341796875,
                1016.1607666015625,
                1017.5595703125,
                1017.7964477539063,
                1017.8370971679688,
                1017.9908447265625,
                1018.0673217773438,
                1018.1295776367188,
                1018.1764526367188,
                1020.865234375,
                1020.8916625976563,
                1021.015869140625,
                1021.11767578125,
                1021.3885498046875,
                1022.1644287109375,
                1022.3713989257813,
                1022.614990234375,
                1023.2037353515625,
                1023.544921875,
                1023.7514038085938,
                1024.22802734375,
                1024.78564453125,
                1025.02880859375,
                1025.322265625,
                1025.372314453125,
                1025.848388671875,
                1025.9876708984375,
                1026.58203125,
                1028.9622802734375,
                1029.98291015625,
                1031.704833984375
              ],
            "feature_id":"8656483_air_pressure_24",
            "feature_index":16,
            "flat_feature_index":16,
            "has_nans":true,
            "nan_value_treatment":"AsFalse"
          },
          {
            "borders":
              [
                1.6352342367172241,
                16.341457366943359,
                17.158378601074219,
                17.297916412353516,
                17.767356872558594,
                18.401237487792969,
                20.534700393676758,
                20.962265014648438,
                21.564998626708984,
                22.304569244384766,
                23.029697418212891,
                23.177406311035156,
                23.382499694824219,
                24.418876647949219,
                24.476665496826172,
                24.533523559570313,
                24.747707366943359,
                25.098751068115234,
                25.245416641235352,
                25.279792785644531,
                25.302291870117188,
                25.43316650390625,
                25.457708358764648,
                25.488332748413086,
                25.575153350830078,
                25.674373626708984,
                25.759609222412109,
                25.915271759033203,
                26.327688217163086,
                27.730417251586914,
                28.925113677978516,
                29.178749084472656
              ],
            "feature_id":"8656483_air_temperature_24",
            "feature_index":17,
            "flat_feature_index":17,
            "has_nans":true,
            "nan_value_treatment":"AsFalse"
          },
          {
            "borders":
              [
                10.819879531860352,
                13.890000343322754,
                15.600000381469727,
                17.600578308105469,
                18.546875,
                19.140293121337891,
                19.361976623535156,
                20.790180206298828,
                21.297103881835938,
                21.624166488647461,
                21.939582824707031,
                22.243125915527344,
                22.369998931884766,
                22.519166946411133,
                22.588541030883789,
                23.313541412353516,
                23.415626525878906,
                23.723751068115234,
                23.856409072875977,
                24.106874465942383,
                24.149375915527344,
                25.090625762939453,
                25.591251373291016,
                25.710416793823242,
                25.769166946411133,
                25.952291488647461,
                26.074375152587891,
                26.254165649414063,
                26.389938354492188,
                26.482707977294922,
                26.509151458740234,
                26.572500228881836,
                27.818124771118164,
                27.956666946411133,
                27.974956512451172,
                28.051143646240234,
                28.130416870117188,
                28.176250457763672,
                28.198959350585938,
                28.331310272216797,
                28.353324890136719,
                28.392475128173828,
                28.700441360473633,
                28.974998474121094,
                28.993749618530273,
                29.064611434936523,
                29.321430206298828,
                29.7769775390625,
                29.914375305175781
              ],
            "feature_id":"8656483_water_temperature_24",
            "feature_index":18,
            "flat_feature_index":18,
            "has_nans":true,
            "nan_value_treatment":"AsFalse"
          },
          {
            "borders":
              [
                -4.4684934616088867,
                -4.0683403015136719,
                -3.8607046604156494,
                -3.7792396545410156,
                -3.5556068420410156,
                -3.5161223411560059,
                -3.4231123924255371,
                -3.3689324855804443,
                -3.2611556053161621,
                -2.6323587894439697,
                -2.4773273468017578,
                -2.3803298473358154,
                -2.2971301078796387,
                -2.2145094871520996,
                -2.1460897922515869,
                -2.108227014541626,
                -1.948245644569397,
                -1.7326438426971436,
                -1.6956988573074341,
                -1.6386997699737549,
                -1.6066141128540039,
                -1.5648040771484375,
                -1.3671251535415649,
                -1.2193243503570557,
                -1.1426641941070557,
                -0.87706393003463745,
                -0.76803743839263916,
                -0.50440007448196411,
                -0.29707741737365723,
                0.59679710865020752,
                2.9795806407928467,
                3.1093568801879883,
                3.3898630142211914,
                3.5509028434753418,
                3.6826643943786621,
                4.041595458984375,
                4.5799903869628906,
                5.915313720703125,
                6.5224609375,
                7.6327962875366211
              ],
            "feature_id":"8656483_wind_v_48",
            "feature_index":19,
            "flat_feature_index":19,
            "has_nans":true,
            "nan_value_treatment":"AsFalse"
          },
          {
            "borders":
              [
                -2.7212140560150146,
                -2.441727876663208,
                -2.1820306777954102,
                -2.1483955383300781,
                -2.1164531707763672,
                -2.0726337432861328,
                -2.0680263042449951,
                -2.0454893112182617,
                -1.9611883163452148,
                -1.8734387159347534,
                -1.8381839990615845,
                -1.8009028434753418,
                -1.747018575668335,
                -1.7190806865692139,
                -1.6953697204589844,
                -1.6639722585678101,
                -1.5917222499847412,
                -1.5120670795440674,
                -1.4828686714172363,
                -1.4752202033996582,
                -1.4443039894104004,
                -1.438786506652832,
                -1.377025842666626,
                -1.354891300201416,
                -1.2762448787689209,
                -1.2478073835372925,
                -1.2139037847518921,
                -1.0477395057678223,
                -0.92753583192825317,
                -0.90499651432037354,
                -0.8696751594543457,
                -0.81742751598358154,
                -0.76254534721374512,
                -0.72960007190704346,
                -0.70816552639007568,
                -0.42304807901382446,
                -0.28164595365524292,
                -0.25277549028396606,
                -0.18119087815284729,
                -0.14537498354911804,
                -0.08312581479549408,
                0.02821999229490757,
                0.045066177845001221,
                0.054599963128566742,
                0.071998879313468933,
                0.20359016954898834,
                0.28454414010047913,
                0.40026196837425232,
                0.44062060117721558,
                0.48754942417144775,
                0.50093972682952881,
                0.65938127040863037,
                0.75920665264129639,
                0.81069755554199219,
                0.90736973285675049,
                1.0925660133361816,
                1.1469171047210693,
                1.2438787221908569,
                1.5578315258026123,
                1.617378830909729,
                1.6871206760406494,
                1.7960207462310791,
                1.9201648235321045,
                2.1017370223999023,
                2.1785645484924316,
                2.2422552108764648,
                3.658627986907959
              ],
            "feature_id":"8656483_wind_u_48",
            "feature_index":20,
            "flat_feature_index":20,
            "has_nans":true,
            "nan_value_treatment":"AsFalse"
          },
          {
            "borders":
              [
                1009.3886108398438,
                1010.0210571289063,
                1012.3155517578125,
                1012.72216796875,
                1013.661865234375,
                1014.36376953125,
                1014.5032348632813,
                1014.599853515625,
                1014.7109375,
                1014.8984375,
                1015.3285522460938,
                1015.3583984375,
                1015.3914794921875,
                1015.6354370117188,
                1015.7701416015625,
                1016.0072021484375,
                1017.537353515625,
                1018.2200927734375,
                1019.1553955078125,
                1019.2327880859375,
                1019.890625,
                1020.510986328125,
                1021.15478515625,
                1021.298583984375,
                1021.321533203125,
                1021.38427734375,
                1021.590087890625,
                1021.723388671875,
                1021.7698974609375,
                1021.9278564453125,
                1022.19189453125,
                1022.3056030273438,
                1022.38134765625,
                1022.5982055664063,
                1022.6893920898438,
                1023.0131225585938,
                1024.4542236328125,
                1025.260986328125,
                1025.637451171875,
                1026.806640625,
                1027.2340087890625,
                1030.16650390625,
                1033.01318359375
              ],
            "feature_id":"8656483_air_pressure_48",
            "feature_index":21,
            "flat_feature_index":21,
            "has_nans":true,
            "nan_value_treatment":"AsFalse"
          },
          {
            "borders":
              [
                13.212610244750977,
                14.26643180847168,
                15.444660186767578,
                16.582290649414063,
                17.473228454589844,
                17.587501525878906,
                21.384895324707031,
                21.623020172119141,
                21.926212310791016,
                22.710636138916016,
                23.158052444458008,
                23.328125,
                24.60270881652832,
                24.736667633056641,
                24.993083953857422,
                25.05958366394043,
                25.183124542236328,
                25.284687042236328,
                25.427186965942383,
                25.474891662597656,
                25.515535354614258,
                25.5816650390625,
                25.679279327392578,
                25.807571411132813,
                25.905729293823242,
                26.438692092895508,
                26.650936126708984,
                26.676145553588867,
                27.111721038818359,
                28.706825256347656,
                29.277317047119141
              ],
            "feature_id":"8656483_air_temperature_48",
            "feature_index":22,
            "flat_feature_index":22,
            "has_nans":true,
            "nan_value_treatment":"AsFalse"
          },
          {
            "borders":
              [
                9.1120834350585938,
                11.847808837890625,
                13.626681327819824,
                14.176563262939453,
                16.388542175292969,
                17.382499694824219,
                17.638870239257813,
                19.851478576660156,
                20.52166748046875,
                20.703239440917969,
                21.937187194824219,
                22.190521240234375,
                22.308864593505859,
                22.391433715820313,
                22.546249389648438,
                23.620426177978516,
                23.861457824707031,
                24.541391372680664,
                25.282463073730469,
                25.408645629882813,
                25.489269256591797,
                25.678020477294922,
                25.807498931884766,
                25.944478988647461,
                26.225728988647461,
                26.489582061767578,
                26.979228973388672,
                27.580936431884766,
                27.640987396240234,
                27.707187652587891,
                27.861978530883789,
                27.908260345458984,
                28.136665344238281,
                28.155521392822266,
                28.297082901000977,
                28.310947418212891,
                28.390628814697266,
                28.950471878051758,
                29.072187423706055,
                29.164375305175781,
                29.751874923706055,
                29.968124389648438
              ],
            "feature_id":"8656483_water_temperature_48",
            "feature_index":23,
            "flat_feature_index":23,
            "has_nans":true,
            "nan_value_treatment":"AsFalse"
          },
          {
            "borders":
              [
                -4.2488741874694824,
                -3.3398337364196777,
                -3.3252818584442139,
                -3.22316575050354,
                -2.9183073043823242,
                -2.5274605751037598,
                -1.9890670776367188,
                -1.9622219800949097,
                -1.579771876335144,
                -1.4828026294708252,
                -1.4095697402954102,
                -1.3028343915939331,
                -1.1702408790588379,
                -1.1090788841247559,
                -1.0612539052963257,
                -1.0004048347473145,
                -0.92667055130004883,
                -0.70072567462921143,
                -0.58584773540496826,
                -0.36511155962944031,
                -0.10719646513462067,
                -0.046719774603843689,
                -0.016231846064329147,
                0.057320624589920044,
                0.10234376788139343,
                0.20513081550598145,
                0.47683835029602051,
                0.50463658571243286,
                0.52816182374954224,
                0.57114517688751221,
                3.3070945739746094,
                3.4455785751342773,
                4.0098228454589844,
                5.4432277679443359,
                6.4785728454589844
              ],
            "feature_id":"8656483_wind_v_72",
            "feature_index":24,
            "flat_feature_index":24,
            "has_nans":true,
            "nan_value_treatment":"AsFalse"
          },
          {
            "borders":
              [
                -2.3195722103118896,
                -2.2497525215148926,
                -1.9042508602142334,
                -1.7442605495452881,
                -1.7310488224029541,
                -1.6750328540802002,
                -1.6390888690948486,
                -1.616502046585083,
                -1.5804594755172729,
                -1.4702843427658081,
                -1.4166419506072998,
                -1.3972110748291016,
                -1.3845343589782715,
                -1.3655638694763184,
                -1.3276811838150024,
                -1.2237194776535034,
                -1.1774685382843018,
                -1.0711889266967773,
                -1.0279393196105957,
                -0.93075144290924072,
                -0.88728344440460205,
                -0.86678409576416016,
                -0.76322782039642334,
                -0.74770361185073853,
                -0.47061091661453247,
                0.20264565944671631,
                0.31449216604232788,
                0.35198616981506348,
                0.38222134113311768,
                0.45631623268127441,
                0.47206962108612061,
                0.48094424605369568,
                0.4966270923614502,
                0.55631852149963379,
                0.85937517881393433,
                0.91990780830383301,
                0.99801665544509888,
                1.0206936597824097,
                1.1027882099151611,
                1.2081490755081177,
                1.3345296382904053,
                1.6045219898223877,
                1.697969913482666,
                1.7910475730895996,
                3.2767934799194336
              ],
            "feature_id":"8656483_wind_u_72",
            "feature_index":25,
            "flat_feature_index":25,
            "has_nans":true,
            "nan_value_treatment":"AsFalse"
          },
          {
            "borders":
              [
                1007.2207641601563,
                1008.3485107421875,
                1009.203125,
                1010.0368041992188,
                1010.94140625,
                1011.0548095703125,
                1011.1954345703125,
                1011.2623291015625,
                1012.6485595703125,
                1013.2109375,
                1013.6739501953125,
                1014.9256591796875,
                1015.05322265625,
                1015.1217041015625,
                1015.229736328125,
                1015.3639526367188,
                1015.4188232421875,
                1015.764892578125,
                1015.894287109375,
                1016.0247192382813,
                1016.083251953125,
                1016.1981201171875,
                1016.211181640625,
                1016.5034790039063,
                1016.8964233398438,
                1017.030029296875,
                1017.108642578125,
                1017.1633911132813,
                1017.1931762695313,
                1017.2846069335938,
                1019.030517578125,
                1019.0775756835938,
                1019.1435546875,
                1019.206298828125,
                1019.4766845703125,
                1019.605224609375,
                1019.7589721679688,
                1020.0159912109375,
                1020.2047729492188,
                1020.3072509765625,
                1020.850830078125,
                1020.9134521484375,
                1020.999267578125,
                1021.5478515625,
                1021.720947265625,
                1021.8057250976563,
                1021.9671020507813,
                1022.1361083984375,
                1022.23779296875,
                1022.5594482421875,
                1022.988037109375,
                1023.30517578125,
                1025.531494140625,
                1027.1064453125,
                1028.5809326171875,
                1031.12353515625
              ],
            "feature_id":"8656483_air_pressure_72",
            "feature_index":26,
            "flat_feature_index":26,
            "has_nans":true,
            "nan_value_treatment":"AsFalse"
          },
          {
            "borders":
              [
                0.0015331190079450607,
                10.287569046020508,
                10.555208206176758,
                14.072883605957031,
                14.368610382080078,
                14.706666946411133,
                14.957633972167969,
                15.038435935974121,
                15.580944061279297,
                15.736175537109375,
                16.201179504394531,
                17.922708511352539,
                19.535556793212891,
                21.397846221923828,
                21.44154167175293,
                21.591180801391602,
                21.694545745849609,
                21.954830169677734,
                22.170047760009766,
                22.302761077880859,
                22.388111114501953,
                22.543666839599609,
                22.633403778076172,
                23.002513885498047,
                23.520694732666016,
                23.637430191040039,
                23.968959808349609,
                24.033401489257813,
                24.659305572509766,
                24.750415802001953,
                24.821895599365234,
                24.836605072021484,
                24.893611907958984,
                24.910346984863281,
                24.9566650390625,
                25.020801544189453,
                25.083332061767578,
                25.278423309326172,
                25.329792022705078,
                25.399930953979492,
                25.439420700073242,
                25.773540496826172,
                25.972639083862305,
                26.040348052978516,
                26.347986221313477,
                26.385208129882813,
                26.43951416015625,
                26.591110229492188,
                26.822292327880859,
                27.144847869873047,
                27.816310882568359,
                27.938055038452148,
                28.275972366333008,
                28.362606048583984,
                28.56782341003418,
                28.99724006652832
              ],
            "feature_id":"8656483_air_temperature_72",
            "feature_index":27,
            "flat_feature_index":27,
            "has_nans":true,
            "nan_value_treatment":"AsFalse"
          },
          {
            "borders":
              [
                5.9416666030883789,
                8.2639579772949219,
                10.92805290222168,
                11.737500190734863,
                12.428339004516602,
                12.884098052978516,
                12.910486221313477,
                13.909444808959961,
                14.104867935180664,
                16.556119918823242,
                17.330385208129883,
                17.552261352539063,
                19.652431488037109,
                20.204761505126953,
                21.107852935791016,
                22.072917938232422,
                22.283748626708984,
                22.661235809326172,
                22.802707672119141,
                23.02117919921875,
                23.070278167724609,
                24.02833366394043,
                24.211944580078125,
                24.836282730102539,
                25.026805877685547,
                25.323698043823242,
                25.422708511352539,
                25.447153091430664,
                25.533401489257813,
                25.598751068115234,
                25.767730712890625,
                25.914791107177734,
                26.201042175292969,
                26.26361083984375,
                26.403472900390625,
                26.939445495605469,
                27.164257049560547,
                27.320234298706055,
                27.463611602783203,
                27.47972297668457,
                27.569862365722656,
                27.639171600341797,
                27.684930801391602,
                27.811248779296875,
                27.939617156982422,
                27.968729019165039,
                28.248819351196289,
                28.277153015136719,
                28.365833282470703,
                28.510358810424805,
                28.585041046142578,
                28.667638778686523,
                28.857610702514648,
                28.927814483642578,
                29.056735992431641,
                29.075775146484375,
                29.402103424072266,
                29.663076400756836,
                30.014373779296875
              ],
            "feature_id":"8656483_water_temperature_72",
            "feature_index":28,
            "flat_feature_index":28,
            "has_nans":true,
            "nan_value_treatment":"AsFalse"
          }
        ]
    },
  "model_info":
    {
      "catboost_version_info":"Git info:\n    Commit: d63ba37ba1c5b0a3082a19c673c11a93b77cb8c2\n    Branch: heads/master\n    Author: somov <somov@yandex-team.ru>\n    Summary: Correct debug trap for M1\n    git-svn info:\n    Last Changed Rev: 9293085\n\nOther info:\n    Build by: zomb-ml-platform-oss\n    Top src dir: C:\\Program Files (x86)\\Go Agent\\pipelines\\BuildMaster\\catboost.git\n    Top build dir: C:\\Users\\zomb-ml-platform-msk\\.ya\\build\n    Hostname: platform-w10\n    Host information: \n        Microsoft Windows [Version 10.0.19044.2130]\n\n    ",
      "model_guid":"ac17aaf0-64ce79c8-6968bb37-41b7be98",
      "output_options":"{\"name\":\"experiment\",\"verbose\":1,\"test_error_log\":\"test_error.tsv\",\"json_log\":\"catboost_training.json\",\"result_model_file\":\"model\",\"roc_file\":\"\",\"eval_file_name\":\"\",\"use_best_model\":false,\"allow_writing_files\":true,\"prediction_type\":[\"RawFormulaVal\"],\"fstr_internal_file\":\"\",\"output_columns\":[\"SampleId\",\"RawFormulaVal\",\"Label\"],\"snapshot_interval\":600,\"time_left_log\":\"time_left.tsv\",\"fstr_type\":\"FeatureImportance\",\"profile_log\":\"catboost_profile.log\",\"train_dir\":\"catboost_info\",\"learn_error_log\":\"learn_error.tsv\",\"training_options_file\":\"\",\"snapshot_file\":\"experiment.cbsnapshot\",\"save_snapshot\":false,\"model_format\":[\"CatboostBinary\"],\"final_feature_calcer_computation_mode\":\"Default\",\"metric_period\":1,\"output_borders\":\"\",\"final_ctr_computation_mode\":\"Default\",\"best_model_min_trees\":1,\"fstr_regular_file\":\"\"}",
      "params":
        {
          "boosting_options":
            {
              "boost_from_average":true,
              "boosting_type":"Ordered",
              "data_partition":"FeatureParallel",
              "fold_len_multiplier":2,
              "fold_permutation_block":64,
              "iterations":1000,
              "learning_rate":0.035029001533985138,
              "min_fold_size":100,
              "od_config":
                {
                  "stop_pvalue":0,
                  "type":"None",
                  "wait_iterations":20
                },
              "permutation_count":4
            },
          "cat_feature_params":
            {
              "combinations_ctrs":
                [
                  {
                    "ctr_binarization":
                      {
                        "border_count":15,
                        "border_type":"Uniform"
                      },
                    "ctr_type":"Borders",
                    "prior_estimation":"No",
                    "priors":
                      [
                        [
                          0,
                          1
                        ],
                        [
                          0.5,
                          1
                        ],
                        [
                          1,
                          1
                        ]
                      ],
                    "target_binarization":
                      {
                        "border_count":1,
                        "border_type":"MinEntropy"
                      }
                  },
                  {
                    "ctr_binarization":
                      {
                        "border_count":15,
                        "border_type":"Median"
                      },
                    "ctr_type":"FeatureFreq",
                    "prior_estimation":"No",
                    "priors":
                      [
                        [
                          0,
                          1
                        ]
                      ]
                  }
                ],
              "counter_calc_method":"SkipTest",
              "ctr_history_unit":"Sample",
              "max_ctr_complexity":4,
              "one_hot_max_size":2,
              "per_feature_ctrs":
                {
                },
              "simple_ctrs":
                [
                  {
                    "ctr_binarization":
                      {
                        "border_count":15,
                        "border_type":"Uniform"
                      },
                    "ctr_type":"Borders",
                    "prior_estimation":"No",
                    "priors":
                      [
                        [
                          0,
                          1
                        ],
                        [
                          0.5,
                          1
                        ],
                        [
                          1,
                          1
                        ]
                      ],
                    "target_binarization":
                      {
                        "border_count":1,
                        "border_type":"MinEntropy"
                      }
                  },
                  {
                    "ctr_binarization":
                      {
                        "border_count":15,
                        "border_type":"MinEntropy"
                      },
                    "ctr_type":"FeatureFreq",
                    "prior_estimation":"No",
                    "priors":
                      [
                        [
                          0,
                          1
                        ]
                      ]
                  }
                ],
              "target_binarization":
                {
                  "border_count":1,
                  "border_type":"MinEntropy"
                }
            },
          "data_processing_options":
            {
              "allow_const_label":false,
              "auto_class_weights":"None",
              "class_names":
                [
                ],
              "class_weights":
                [
                ],
              "classes_count":0,
              "dev_default_value_fraction_for_sparse":0.82999998331069946,
              "dev_sparse_array_indexing":"Indices",
              "embedding_processing_options":
                {
                  "embedding_processing":
                    {
                      "default":
                        [
                          "LDA",
                          "KNN"
                        ]
                    }
                },
              "eval_fraction":0,
              "float_features_binarization":
                {
                  "border_count":128,
                  "border_type":"GreedyLogSum",
                  "dev_max_subset_size_for_build_borders":200000,
                  "nan_mode":"Min"
                },
              "force_unit_auto_pair_weights":false,
              "gpu_cat_features_storage":"GpuRam",
              "has_time":false,
              "ignored_features":
                [
                ],
              "per_float_feature_quantization":
                {
                },
              "target_border":null,
              "text_processing_options":
                {
                  "dictionaries":
                    [
                      {
                        "dictionary_id":"BiGram",
                        "end_of_sentence_token_policy":"Skip",
                        "end_of_word_token_policy":"Insert",
                        "gram_order":"2",
                        "max_dictionary_size":"50000",
                        "occurrence_lower_bound":"1",
                        "skip_step":"0",
                        "start_token_id":"0",
                        "token_level_type":"Word"
                      },
                      {
                        "dictionary_id":"Word",
                        "end_of_sentence_token_policy":"Skip",
                        "end_of_word_token_policy":"Insert",
                        "gram_order":"1",
                        "max_dictionary_size":"50000",
                        "occurrence_lower_bound":"1",
                        "skip_step":"0",
                        "start_token_id":"0",
                        "token_level_type":"Word"
                      }
                    ],
                  "feature_processing":
                    {
                      "default":
                        [
                          {
                            "dictionaries_names":
                              [
                                "BiGram",
                                "Word"
                              ],
                            "feature_calcers":
                              [
                                "BoW"
                              ],
                            "tokenizers_names":
                              [
                                "Space"
                              ]
                          }
                        ]
                    },
                  "tokenizers":
                    [
                      {
                        "delimiter":" ",
                        "languages":
                          [
                          ],
                        "lemmatizing":"0",
                        "lowercasing":"0",
                        "number_process_policy":"LeaveAsIs",
                        "number_token":"",
                        "separator_type":"ByDelimiter",
                        "skip_empty":"1",
                        "split_by_set":"0",
                        "subtokens_policy":"SingleToken",
                        "token_types":
                          [
                            "Number",
                            "Unknown",
                            "Word"
                          ],
                        "tokenizer_id":"Space"
                      }
                    ]
                }
            },
          "detailed_profile":false,
          "flat_params":
            {
              "devices":"0:1",
              "loss_function":"RMSE",
              "task_type":"GPU",
              "verbose":1
            },
          "logging_level":"Verbose",
          "loss_function":
            {
              "params":
                {
                },
              "type":"RMSE"
            },
          "metadata":
            {
            },
          "metrics":
            {
              "custom_metrics":
                [
                ],
              "eval_metric":
                {
                  "params":
                    {
                    },
                  "type":"RMSE"
                },
              "objective_metric":
                {
                  "params":
                    {
                    },
                  "type":"RMSE"
                }
            },
          "model_based_eval_options":
            {
              "baseline_model_snapshot":"baseline_model_snapshot",
              "experiment_count":200,
              "experiment_size":5,
              "features_to_evaluate":
                [
                ],
              "offset":1000,
              "use_evaluated_features_in_baseline_model":false
            },
          "pool_metainfo_options":
            {
              "tags":
                {
                }
            },
          "random_seed":0,
          "system_options":
            {
              "devices":"0:1",
              "gpu_ram_part":0.94999999999999996,
              "pinned_memory_bytes":"104857600",
              "thread_count":6,
              "used_ram_limit":""
            },
          "task_type":"GPU",
          "tree_learner_options":
            {
              "add_ridge_penalty_to_loss_function":false,
              "bayesian_matrix_reg":0.10000000149011612,
              "bootstrap":
                {
                  "bagging_temperature":1,
                  "type":"Bayesian"
                },
              "depth":6,
              "dev_efb_max_buckets":254,
              "dev_max_ctr_complexity_for_borders_cache":1,
              "fixed_binary_splits":
                [
                ],
              "fold_size_loss_normalization":false,
              "grow_policy":"SymmetricTree",
              "l2_leaf_reg":3,
              "leaf_estimation_backtracking":"AnyImprovement",
              "leaf_estimation_iterations":1,
              "leaf_estimation_method":"Newton",
              "max_leaves":64,
              "meta_l2_exponent":1,
              "meta_l2_frequency":0,
              "min_data_in_leaf":1,
              "model_size_reg":0.5,
              "observations_to_bootstrap":"TestOnly",
              "penalties":
                {
                  "feature_weights":
                    {
                    },
                  "first_feature_use_penalties":
                    {
                    },
                  "penalties_coefficient":1,
                  "per_object_feature_penalties":
                    {
                    }
                },
              "random_strength":1,
              "rsm":1,
              "score_function":"Cosine"
            }
        },
      "train_finish_time":"2023-03-22T15:34:54Z"
    },
  "oblivious_trees":
    [
      {
        "leaf_values":
          [
            -0.85595846176147461,
            0,
            -0.89137375354766846,
            -0.34725484251976013,
            -1.1148225069046021,
            -0.25355225801467896,
            -1.1210199594497681,
            0,
            0,
            -0.24177977442741394,
            0,
            -1.0900110006332397,
            0,
            -0.46372628211975098,
            0,
            -0.67874664068222046,
            -1.1949315071105957,
            27.295249938964844,
            -1.4604654312133789,
            -0.88214874267578125,
            -0.13593168556690216,
            -0.23053863644599915,
            -1.4348682165145874,
            -0.40242552757263184,
            0,
            18.062820434570313,
            0,
            -0.055794786661863327,
            0,
            -1.0464986562728882,
            0,
            -1.3420801162719727,
            0,
            0,
            0,
            0,
            0,
            0,
            0,
            0,
            0,
            -0.47248351573944092,
            0,
            0,
            0,
            0,
            0,
            0,
            7.9705314636230469,
            0,
            -1.2457501888275146,
            -0.67890983819961548,
            -0.18086710572242737,
            -0.37089940905570984,
            -0.25355225801467896,
            0,
            0,
            -0.59596192836761475,
            0,
            -1.1605247259140015,
            0,
            0,
            0,
            -0.61655819416046143
          ],
        "leaf_weights":
          [
            23,
            0,
            21,
            1,
            10,
            1,
            10,
            0,
            0,
            6,
            0,
            7,
            0,
            1,
            0,
            3,
            23,
            2,
            51,
            5,
            39,
            2,
            24,
            1,
            0,
            6,
            0,
            31,
            0,
            8,
            0,
            16,
            0,
            0,
            0,
            0,
            0,
            0,
            0,
            0,
            0,
            1,
            0,
            0,
            0,
            0,
            0,
            0,
            4,
            0,
            11,
            2,
            1,
            1,
            1,
            0,
            0,
            6,
            0,
            17,
            0,
            0,
            0,
            2
          ],
        "splits":
          [
            {
              "border":0.35198616981506348,
              "float_feature_index":25,
              "split_index":951,
              "split_type":"FloatFeature"
            },
            {
              "border":-1.8868141174316406,
              "float_feature_index":14,
              "split_index":457,
              "split_type":"FloatFeature"
            },
            {
              "border":24.993083953857422,
              "float_feature_index":22,
              "split_index":830,
              "split_type":"FloatFeature"
            },
            {
              "border":0.48094424605369568,
              "float_feature_index":25,
              "split_index":955,
              "split_type":"FloatFeature"
            },
            {
              "border":1013.3547973632813,
              "float_feature_index":16,
              "split_index":542,
              "split_type":"FloatFeature"
            },
            {
              "border":1021.9671020507813,
              "float_feature_index":26,
              "split_index":1015,
              "split_type":"FloatFeature"
            }
          ]
      },
      {
        "leaf_values":
          [
            -1.1069945096969604,
            0,
            -0.30087676644325256,
            0,
            -0.80220502614974976,
            0,
            0.10566241294145584,
            0,
            -1.1726980209350586,
            -0.78209632635116577,
            -1.0700981616973877,
            -0.7367861270904541,
            -0.67442238330841064,
            -0.58935648202896118,
            35.446159362792969,
            -1.1169464588165283,
            13.247445106506348,
            0,
            0,
            0,
            -0.058680284768342972,
            0,
            0,
            0,
            0,
            0,
            0,
            -0.23637676239013672,
            -0.035366937518119812,
            0,
            8.1538228988647461,
            -1.1067475080490112,
            -0.45396348834037781,
            0,
            0,
            0,
            -0.42750689387321472,
            0,
            0,
            0,
            0,
            0,
            0,
            0,
            0,
            0,
            0,
            0,
            -1.219468355178833,
            0,
            0,
            0,
            -1.2543413639068604,
            0,
            -0.46253588795661926,
            0,
            -1.257483959197998,
            -0.39260846376419067,
            -0.4712931215763092,
            -1.1426901817321777,
            -1.1015279293060303,
            -0.97633063793182373,
            3.193666934967041,
            -1.4498873949050903
          ],
        "leaf_weights":
          [
            16,
            0,
            1,
            0,
            23,
            0,
            4,
            0,
            5,
            3,
            5,
            37,
            7,
            2,
            4,
            85,
            2,
            0,
            0,
            0,
            2,
            0,
            0,
            0,
            0,
            0,
            0,
            3,
            1,
            0,
            2,
            11,
            1,
            0,
            0,
            0,
            1,
            0,
            0,
            0,
            0,
            0,
            0,
            0,
            0,
            0,
            0,
            0,
            9,
            0,
            0,
            0,
            14,
            0,
            1,
            0,
            8,
            1,
            1,
            13,
            17,
            5,
            10,
            43
          ],
        "splits":
          [
            {
              "border":-1.8868141174316406,
              "float_feature_index":14,
              "split_index":457,
              "split_type":"FloatFeature"
            },
            {
              "border":-2.1460897922515869,
              "float_feature_index":19,
              "split_index":680,
              "split_type":"FloatFeature"
            },
            {
              "border":0.14674749970436096,
              "float_feature_index":10,
              "split_index":289,
              "split_type":"FloatFeature"
            },
            {
              "border":-3.3497323989868164,
              "float_feature_index":14,
              "split_index":442,
              "split_type":"FloatFeature"
            },
            {
              "border":25.282463073730469,
              "float_feature_index":23,
              "split_index":865,
              "split_type":"FloatFeature"
            },
            {
              "border":24.836605072021484,
              "float_feature_index":27,
              "split_index":1056,
              "split_type":"FloatFeature"
            }
          ]
      },
      {
        "leaf_values":
          [
            -0.8560522198677063,
            -0.32731044292449951,
            -0.47806048393249512,
            -1.1959842443466187,
            1.3717933893203735,
            -1.0850828886032104,
            -0.43513360619544983,
            -0.37047824263572693,
            0,
            0,
            0.22054481506347656,
            -0.21433234214782715,
            -0.33175307512283325,
            0,
            10.000431060791016,
            -1.0020040273666382,
            0,
            0,
            0,
            0,
            -0.4584459662437439,
            -1.1599318981170654,
            27.683504104614258,
            -1.2933034896850586,
            0,
            0,
            0,
            0,
            0.19441166520118713,
            0,
            0.057320330291986465,
            -1.3471068143844604,
            0,
            0,
            0,
            -0.44115525484085083,
            0,
            -0.2756141722202301,
            0,
            0,
            0,
            0,
            0,
            0,
            0,
            0,
            0,
            0,
            0,
            0,
            0,
            0,
            -0.44183385372161865,
            0,
            0,
            -0.83190023899078369,
            0,
            0,
            0,
            0,
            0,
            0,
            0,
            0
          ],
        "leaf_weights":
          [
            19,
            1,
            4,
            52,
            22,
            6,
            1,
            27,
            0,
            0,
            2,
            10,
            3,
            0,
            2,
            16,
            0,
            0,
            0,
            0,
            70,
            9,
            5,
            51,
            0,
            0,
            0,
            0,
            1,
            0,
            3,
            23,
            0,
            0,
            0,
            1,
            0,
            1,
            0,
            0,
            0,
            0,
            0,
            0,
            0,
            0,
            0,
            0,
            0,
            0,
            0,
            0,
            2,
            0,
            0,
            6,
            0,
            0,
            0,
            0,
            0,
            0,
            0,
            0
          ],
        "splits":
          [
            {
              "border":-1.8868141174316406,
              "float_feature_index":14,
              "split_index":457,
              "split_type":"FloatFeature"
            },
            {
              "border":-1.6956988573074341,
              "float_feature_index":19,
              "split_index":684,
              "split_type":"FloatFeature"
            },
            {
              "border":17.473228454589844,
              "float_feature_index":22,
              "split_index":820,
              "split_type":"FloatFeature"
            },
            {
              "border":1.1469171047210693,
              "float_feature_index":20,
              "split_index":762,
              "split_type":"FloatFeature"
            },
            {
              "border":23.856409072875977,
              "float_feature_index":18,
              "split_index":635,
              "split_type":"FloatFeature"
            },
            {
              "border":0.083021387457847595,
              "float_feature_index":5,
              "split_index":169,
              "split_type":"FloatFeature"
            }
          ]
      },
      {
        "leaf_values":
          [
            -1.0002779960632324,
            -0.58747029304504395,
            0,
            0,
            0,
            0,
            -0.56498879194259644,
            0,
            -1.3895446062088013,
            -1.122240424156189,
            0,
            0,
            -0.77694487571716309,
            -0.49524614214897156,
            -0.93015724420547485,
            -0.36861801147460938,
            -1.2828202247619629,
            -0.71654719114303589,
            0,
            0,
            -0.42472076416015625,
            4.4392218589782715,
            1.6689318418502808,
            -0.54109811782836914,
            -1.2204797267913818,
            -0.91308784484863281,
            0,
            0,
            -1.2182377576828003,
            31.132152557373047,
            -0.51292234659194946,
            -1.184339165687561,
            -0.43068170547485352,
            0,
            0,
            0,
            0,
            0,
            0,
            0,
            0,
            0,
            0,
            0,
            0,
            0,
            0,
            0,
            -0.571888267993927,
            14.871195793151855,
            0,
            0,
            -0.18193091452121735,
            -0.39131817221641541,
            -1.3056703805923462,
            -0.83917492628097534,
            -0.35265204310417175,
            0,
            0,
            0,
            0,
            0,
            -0.88850957155227661,
            0
          ],
        "leaf_weights":
          [
            22,
            8,
            0,
            0,
            0,
            0,
            2,
            0,
            29,
            11,
            0,
            0,
            3,
            1,
            5,
            1,
            25,
            6,
            0,
            0,
            5,
            2,
            44,
            13,
            22,
            11,
            0,
            0,
            6,
            3,
            51,
            22,
            1,
            0,
            0,
            0,
            0,
            0,
            0,
            0,
            0,
            0,
            0,
            0,
            0,
            0,
            0,
            0,
            5,
            1,
            0,
            0,
            1,
            1,
            26,
            4,
            1,
            0,
            0,
            0,
            0,
            0,
            5,
            0
          ],
        "splits":
          [
            {
              "border":4150,
              "float_feature_index":0,
              "split_index":4,
              "split_type":"FloatFeature"
            },
            {
              "border":-0.55278927087783813,
              "float_feature_index":15,
              "split_index":512,
              "split_type":"FloatFeature"
            },
            {
              "border":-0.83077913522720337,
              "float_feature_index":15,
              "split_index":504,
              "split_type":"FloatFeature"
            },
            {
              "border":22.543666839599609,
              "float_feature_index":27,
              "split_index":1046,
              "split_type":"FloatFeature"
            },
            {
              "border":-1.4166419506072998,
              "float_feature_index":25,
              "split_index":934,
              "split_type":"FloatFeature"
            },
            {
              "border":1022.3056030273438,
              "float_feature_index":21,
              "split_index":804,
              "split_type":"FloatFeature"
            }
          ]
      },
      {
        "leaf_values":
          [
            -0.70850664377212524,
            0,
            -0.28873917460441589,
            -0.41154947876930237,
            -0.58691906929016113,
            -0.33763837814331055,
            -0.66438513994216919,
            -0.6443825364112854,
            -0.44124108552932739,
            -0.61986809968948364,
            0.10312480479478836,
            -0.83326601982116699,
            0,
            0,
            0,
            -0.78416645526885986,
            0,
            0,
            0,
            0,
            0,
            0,
            0,
            0,
            0.97822010517120361,
            -1.266331672668457,
            -0.66301369667053223,
            0.15882451832294464,
            -1.1667816638946533,
            -1.1927934885025024,
            30.767322540283203,
            -1.0865539312362671,
            0,
            0,
            0,
            -0.79422098398208618,
            0,
            0,
            0,
            -0.85636484622955322,
            0,
            0,
            0.46617168188095093,
            -0.93018233776092529,
            0,
            0,
            0,
            -0.43284690380096436,
            0,
            0,
            0,
            0,
            0,
            0,
            0,
            0,
            0,
            0,
            0,
            -1.1558146476745605,
            0,
            0,
            0,
            -1.1222488880157471
          ],
        "leaf_weights":
          [
            12,
            0,
            1,
            7,
            6,
            1,
            2,
            2,
            1,
            3,
            2,
            7,
            0,
            0,
            0,
            3,
            0,
            0,
            0,
            0,
            0,
            0,
            0,
            0,
            79,
            31,
            4,
            15,
            22,
            11,
            4,
            16,
            0,
            0,
            0,
            17,
            0,
            0,
            0,
            11,
            0,
            0,
            1,
            12,
            0,
            0,
            0,
            1,
            0,
            0,
            0,
            0,
            0,
            0,
            0,
            0,
            0,
            0,
            0,
            45,
            0,
            0,
            0,
            21
          ],
        "splits":
          [
            {
              "border":-1.8868141174316406,
              "float_feature_index":14,
              "split_index":457,
              "split_type":"FloatFeature"
            },
            {
              "border":-0.92667055130004883,
              "float_feature_index":24,
              "split_index":905,
              "split_type":"FloatFeature"
            },
            {
              "border":0.034697413444519043,
              "float_feature_index":3,
              "split_index":95,
              "split_type":"FloatFeature"
            },
            {
              "border":14.176563262939453,
              "float_feature_index":23,
              "split_index":850,
              "split_type":"FloatFeature"
            },
            {
              "border":17.473228454589844,
              "float_feature_index":22,
              "split_index":820,
              "split_type":"FloatFeature"
            },
            {
              "border":0.59679710865020752,
              "float_feature_index":19,
              "split_index":695,
              "split_type":"FloatFeature"
            }
          ]
      },
      {
        "leaf_values":
          [
            -0.99588322639465332,
            -0.25625789165496826,
            -0.85472637414932251,
            0,
            -0.8846251368522644,
            0,
            -1.0493147373199463,
            0,
            6.1398310661315918,
            0,
            -0.70677453279495239,
            0,
            -0.42937344312667847,
            0.020253920927643776,
            -0.95924508571624756,
            -0.40517345070838928,
            -1.2365124225616455,
            -0.92395758628845215,
            -1.0646076202392578,
            -0.35336902737617493,
            0,
            0,
            -0.83259230852127075,
            0,
            -1.1376378536224365,
            -0.58065503835678101,
            -0.57945293188095093,
            0,
            0,
            0,
            -0.42659807205200195,
            0,
            -0.4142950177192688,
            0.5577850341796875,
            -0.78141850233078003,
            0,
            0,
            26.491992950439453,
            -1.1368628740310669,
            -0.90029662847518921,
            -1.1600378751754761,
            -0.61281818151473999,
            0,
            0,
            0,
            -0.32653713226318359,
            -0.98724400997161865,
            -0.19147942960262299,
            3.2934398651123047,
            -0.81937515735626221,
            -0.99032735824584961,
            -0.74198657274246216,
            0,
            -0.48149082064628601,
            -0.92195582389831543,
            -1.0731774568557739,
            0,
            16.534427642822266,
            -0.6337164044380188,
            -0.53921669721603394,
            0,
            0,
            -0.33848574757575989,
            -0.82884639501571655
          ],
        "leaf_weights":
          [
            29,
            2,
            6,
            0,
            3,
            0,
            22,
            0,
            6,
            0,
            3,
            0,
            1,
            2,
            6,
            1,
            34,
            7,
            13,
            1,
            0,
            0,
            4,
            0,
            9,
            2,
            2,
            0,
            0,
            0,
            1,
            0,
            3,
            2,
            4,
            0,
            0,
            5,
            26,
            27,
            6,
            2,
            0,
            0,
            0,
            4,
            11,
            31,
            9,
            6,
            6,
            3,
            0,
            1,
            10,
            15,
            0,
            1,
            3,
            2,
            0,
            0,
            1,
            5
          ],
        "splits":
          [
            {
              "border":0.35198616981506348,
              "float_feature_index":25,
              "split_index":951,
              "split_type":"FloatFeature"
            },
            {
              "border":-1.8868141174316406,
              "float_feature_index":14,
              "split_index":457,
              "split_type":"FloatFeature"
            },
            {
              "border":-1.0004048347473145,
              "float_feature_index":24,
              "split_index":904,
              "split_type":"FloatFeature"
            },
            {
              "border":1019.206298828125,
              "float_feature_index":26,
              "split_index":1002,
              "split_type":"FloatFeature"
            },
            {
              "border":24.533523559570313,
              "float_feature_index":17,
              "split_index":600,
              "split_type":"FloatFeature"
            },
            {
              "border":-0.63585847616195679,
              "float_feature_index":15,
              "split_index":509,
              "split_type":"FloatFeature"
            }
          ]
      },
      {
        "leaf_values":
          [
            -0.5468180775642395,
            -0.76719868183135986,
            0,
            0,
            0,
            0,
            0,
            0,
            -0.98293501138687134,
            -0.43571525812149048,
            0,
            0,
            0,
            0,
            0,
            0,
            0,
            -0.40224531292915344,
            0,
            0,
            0.019970154389739037,
            0,
            0,
            0,
            -1.1950050592422485,
            -0.071539521217346191,
            0,
            0,
            0,
            0,
            0,
            0,
            -0.31836467981338501,
            0,
            -0.74346846342086792,
            0,
            0,
            0,
            0.37225756049156189,
            -0.39178803563117981,
            -0.85424315929412842,
            -0.6298755407333374,
            -1.0220950841903687,
            -1.0968163013458252,
            0,
            0,
            -1.0662704706192017,
            -0.97780019044876099,
            -0.744273841381073,
            -0.37921351194381714,
            -0.98149460554122925,
            0,
            0.22078540921211243,
            0,
            -1.2300245761871338,
            0.1422819197177887,
            -1.3607155084609985,
            13.175945281982422,
            -1.1409695148468018,
            -1.0834492444992065,
            24.211475372314453,
            0,
            -1.1910666227340698,
            0.93327271938323975
          ],
        "leaf_weights":
          [
            13,
            5,
            0,
            0,
            0,
            0,
            0,
            0,
            8,
            1,
            0,
            0,
            0,
            0,
            0,
            0,
            0,
            1,
            0,
            0,
            2,
            0,
            0,
            0,
            19,
            5,
            0,
            0,
            0,
            0,
            0,
            0,
            2,
            0,
            3,
            0,
            0,
            0,
            5,
            2,
            9,
            7,
            16,
            13,
            0,
            0,
            25,
            7,
            2,
            1,
            8,
            0,
            2,
            0,
            25,
            6,
            40,
            14,
            28,
            11,
            3,
            0,
            43,
            11
          ],
        "splits":
          [
            {
              "border":4150,
              "float_feature_index":0,
              "split_index":4,
              "split_type":"FloatFeature"
            },
            {
              "border":-1.8868141174316406,
              "float_feature_index":14,
              "split_index":457,
              "split_type":"FloatFeature"
            },
            {
              "border":-0.046719774603843689,
              "float_feature_index":24,
              "split_index":910,
              "split_type":"FloatFeature"
            },
            {
              "border":17.382499694824219,
              "float_feature_index":23,
              "split_index":852,
              "split_type":"FloatFeature"
            },
            {
              "border":1015.1217041015625,
              "float_feature_index":26,
              "split_index":982,
              "split_type":"FloatFeature"
            },
            {
              "border":-3.9802241325378418,
              "float_feature_index":14,
              "split_index":438,
              "split_type":"FloatFeature"
            }
          ]
      },
      {
        "leaf_values":
          [
            -0.73463225364685059,
            0,
            -0.53938925266265869,
            -0.57859104871749878,
            -0.92574489116668701,
            -0.82251834869384766,
            -0.87516075372695923,
            -0.083782888948917389,
            0,
            0,
            0,
            0,
            0,
            0,
            0,
            0,
            -1.3452823162078857,
            25.430046081542969,
            -1.2080405950546265,
            -0.82645392417907715,
            1.0003889799118042,
            0.71554368734359741,
            -1.154911994934082,
            0.38886630535125732,
            -1.2275753021240234,
            0,
            -0.6793714165687561,
            -0.73701238632202148,
            -1.2638658285140991,
            -0.98864459991455078,
            -0.94780707359313965,
            -1.0548690557479858,
            0,
            0,
            0,
            0,
            -0.20742936432361603,
            -0.54531294107437134,
            -0.40296858549118042,
            0,
            0,
            0,
            0,
            0,
            0,
            0,
            0,
            0,
            0,
            0,
            0,
            0,
            -1.0018068552017212,
            15.483833312988281,
            -0.61651629209518433,
            -0.94103085994720459,
            0,
            0,
            0,
            0,
            -0.94728046655654907,
            0,
            -0.51164644956588745,
            -0.51440495252609253
          ],
        "leaf_weights":
          [
            7,
            0,
            2,
            3,
            21,
            3,
            8,
            7,
            0,
            0,
            0,
            0,
            0,
            0,
            0,
            0,
            25,
            2,
            9,
            14,
            54,
            14,
            17,
            39,
            7,
            0,
            3,
            3,
            35,
            8,
            8,
            10,
            0,
            0,
            0,
            0,
            4,
            3,
            1,
            0,
            0,
            0,
            0,
            0,
            0,
            0,
            0,
            0,
            0,
            0,
            0,
            0,
            7,
            3,
            2,
            8,
            0,
            0,
            0,
            0,
            6,
            0,
            2,
            2
          ],
        "splits":
          [
            {
              "border":0.35198616981506348,
              "float_feature_index":25,
              "split_index":951,
              "split_type":"FloatFeature"
            },
            {
              "border":0.10327893495559692,
              "float_feature_index":15,
              "split_index":519,
              "split_type":"FloatFeature"
            },
            {
              "border":0.24177922308444977,
              "float_feature_index":13,
              "split_index":411,
              "split_type":"FloatFeature"
            },
            {
              "border":27.320234298706055,
              "float_feature_index":28,
              "split_index":1118,
              "split_type":"FloatFeature"
            },
            {
              "border":14.26643180847168,
              "float_feature_index":22,
              "split_index":817,
              "split_type":"FloatFeature"
            },
            {
              "border":0.37108629941940308,
              "float_feature_index":3,
              "split_index":126,
              "split_type":"FloatFeature"
            }
          ]
      },
      {
        "leaf_values":
          [
            -0.61920487880706787,
            0,
            0,
            -0.47095298767089844,
            -0.4866044819355011,
            0,
            -0.42992115020751953,
            -0.14227664470672607,
            -1.3344229459762573,
            -0.74839109182357788,
            0.45547088980674744,
            -0.7444988489151001,
            -0.44730472564697266,
            0,
            0,
            -0.39296436309814453,
            0,
            0,
            -0.28455084562301636,
            -0.60251468420028687,
            -0.20661285519599915,
            -0.32736200094223022,
            -0.37111717462539673,
            -0.93653857707977295,
            1.9911400079727173,
            -1.148655891418457,
            -0.58463031053543091,
            -0.78574240207672119,
            -1.4446952342987061,
            -1.0517765283584595,
            28.907609939575195,
            -1.0967448949813843,
            0,
            0,
            0,
            0,
            0,
            0,
            0,
            0,
            0,
            0,
            0,
            0,
            0,
            0,
            0,
            0,
            0,
            0,
            0,
            0,
            0,
            0,
            0,
            0,
            -0.50459933280944824,
            0,
            0,
            -0.42052999138832092,
            -0.37077003717422485,
            0,
            0,
            -0.32873323559761047
          ],
        "leaf_weights":
          [
            12,
            0,
            0,
            2,
            5,
            0,
            1,
            2,
            24,
            5,
            1,
            3,
            8,
            0,
            0,
            1,
            0,
            0,
            1,
            22,
            1,
            1,
            1,
            11,
            54,
            30,
            6,
            75,
            13,
            10,
            4,
            39,
            0,
            0,
            0,
            0,
            0,
            0,
            0,
            0,
            0,
            0,
            0,
            0,
            0,
            0,
            0,
            0,
            0,
            0,
            0,
            0,
            0,
            0,
            0,
            0,
            2,
            0,
            0,
            1,
            1,
            0,
            0,
            1
          ],
        "splits":
          [
            {
              "border":-1.8868141174316406,
              "float_feature_index":14,
              "split_index":457,
              "split_type":"FloatFeature"
            },
            {
              "border":-0.92667055130004883,
              "float_feature_index":24,
              "split_index":905,
              "split_type":"FloatFeature"
            },
            {
              "border":0.036547139286994934,
              "float_feature_index":3,
              "split_index":96,
              "split_type":"FloatFeature"
            },
            {
              "border":14.176563262939453,
              "float_feature_index":23,
              "split_index":850,
              "split_type":"FloatFeature"
            },
            {
              "border":-2.1727604866027832,
              "float_feature_index":15,
              "split_index":492,
              "split_type":"FloatFeature"
            },
            {
              "border":1.8425865173339844,
              "float_feature_index":1,
              "split_index":33,
              "split_type":"FloatFeature"
            }
          ]
      },
      {
        "leaf_values":
          [
            -0.8881496787071228,
            0,
            -0.69660830497741699,
            0,
            -1.1840981245040894,
            0,
            -0.90503573417663574,
            0,
            0,
            0,
            -0.68713897466659546,
            0,
            19.587387084960938,
            0,
            -0.98144710063934326,
            0,
            -1.0611250400543213,
            0,
            -0.23855884373188019,
            0,
            -0.90154391527175903,
            0,
            -0.72258508205413818,
            0,
            0,
            0,
            0,
            0,
            0,
            0,
            0,
            0,
            -0.80806535482406616,
            -0.6590656042098999,
            -0.67015260457992554,
            -0.89437347650527954,
            -0.97983980178833008,
            13.146151542663574,
            -1.0798166990280151,
            -0.94460266828536987,
            -0.42615622282028198,
            0,
            -0.34048935770988464,
            0,
            0.39190629124641418,
            -0.36786723136901855,
            -1.084668755531311,
            0.19228455424308777,
            -0.91950768232345581,
            -0.88770043849945068,
            0,
            -0.36219844222068787,
            -0.93825298547744751,
            -1.2359437942504883,
            -0.90445643663406372,
            -0.82764148712158203,
            0,
            0,
            0,
            0,
            0,
            0,
            -0.80009341239929199,
            -0.68021517992019653
          ],
        "leaf_weights":
          [
            18,
            0,
            3,
            0,
            26,
            0,
            14,
            0,
            0,
            0,
            3,
            0,
            4,
            0,
            61,
            0,
            8,
            0,
            1,
            0,
            7,
            0,
            7,
            0,
            0,
            0,
            0,
            0,
            0,
            0,
            0,
            0,
            9,
            11,
            4,
            5,
            10,
            14,
            15,
            9,
            1,
            0,
            1,
            0,
            3,
            1,
            30,
            25,
            6,
            3,
            0,
            1,
            8,
            5,
            10,
            7,
            0,
            0,
            0,
            0,
            0,
            0,
            4,
            3
          ],
        "splits":
          [
            {
              "border":4150,
              "float_feature_index":0,
              "split_index":4,
              "split_type":"FloatFeature"
            },
            {
              "border":-1.8868141174316406,
              "float_feature_index":14,
              "split_index":457,
              "split_type":"FloatFeature"
            },
            {
              "border":-1.747018575668335,
              "float_feature_index":20,
              "split_index":718,
              "split_type":"FloatFeature"
            },
            {
              "border":-0.10719646513462067,
              "float_feature_index":24,
              "split_index":909,
              "split_type":"FloatFeature"
            },
            {
